-2.9620120722905442e-05
-2.9620120722905442e-05
-2.9620120722905442e-05
-2.9620120722905442e-05
-2.9620120722905442e-05
-2.9620120722905442e-05
-2.9620120722905442e-05
-2.9620120722905442e-05
-2.9620120722905442e-05
-2.9620120722905442e-05
-2.9620120722905442e-05
-2.9620120722905442e-05
-2.9620120722905442e-05
-2.9620120722905442e-05
-2.9620120722905442e-05
-2.9620120722905442e-05
-2.9620120722905442e-05
-2.9620120722905442e-05
-2.9620120722905442e-05
-2.9620120722905442e-05
-2.9620120722905442e-05
-2.9620120722905442e-05
-2.9620120722905442e-05
-2.9620120722905442e-05
-2.9620120722905442e-05
-2.9620120722905442e-05
-2.9620120722905442e-05
-2.9620120722905442e-05
-2.9620120722905442e-05
-2.9620120722905442e-05
-2.9620120722905442e-05
-2.9620120722905442e-05
-2.9620120722905442e-05
-2.9620120722905442e-05
-2.9620120722905442e-05
-2.9620120722905442e-05
-2.9620120722905442e-05
-2.9620120722905442e-05
-2.9620120722905442e-05
-2.9620120722905442e-05
-2.9620120722905442e-05
-2.9620120722905442e-05
-2.9620120722905442e-05
-2.9620120722905442e-05
-2.9620120722905442e-05
-2.9620120722905442e-05
-2.9620120722905442e-05
-2.9620120722905442e-05
-2.9620120722905442e-05
-2.9620120722905442e-05
-6.56832559559371e-06
-6.56832559559371e-06
-6.56832559559371e-06
-6.56832559559371e-06
-6.56832559559371e-06
-6.56832559559371e-06
-6.56832559559371e-06
-6.56832559559371e-06
-6.56832559559371e-06
-6.56832559559371e-06
-6.56832559559371e-06
-6.56832559559371e-06
-6.56832559559371e-06
-6.56832559559371e-06
-6.56832559559371e-06
-6.56832559559371e-06
-6.56832559559371e-06
-6.56832559559371e-06
-6.56832559559371e-06
-6.56832559559371e-06
-6.56832559559371e-06
-6.56832559559371e-06
-6.56832559559371e-06
-6.56832559559371e-06
-6.56832559559371e-06
-6.56832559559371e-06
-6.56832559559371e-06
-6.56832559559371e-06
-6.56832559559371e-06
-6.56832559559371e-06
-6.56832559559371e-06
-6.56832559559371e-06
-6.56832559559371e-06
-6.56832559559371e-06
-6.56832559559371e-06
-6.56832559559371e-06
-6.56832559559371e-06
-6.56832559559371e-06
-6.56832559559371e-06
-6.56832559559371e-06
-6.56832559559371e-06
-6.56832559559371e-06
-6.56832559559371e-06
-6.56832559559371e-06
-6.56832559559371e-06
-6.56832559559371e-06
-6.56832559559371e-06
-6.56832559559371e-06
-6.56832559559371e-06
-6.56832559559371e-06
-7.614174221247815e-05
-7.614174221247815e-05
-7.614174221247815e-05
-7.614174221247815e-05
-7.614174221247815e-05
-7.614174221247815e-05
-7.614174221247815e-05
-7.614174221247815e-05
-7.614174221247815e-05
-7.614174221247815e-05
-7.614174221247815e-05
-7.614174221247815e-05
-7.614174221247815e-05
-7.614174221247815e-05
-7.614174221247815e-05
-7.614174221247815e-05
-7.614174221247815e-05
-7.614174221247815e-05
-7.614174221247815e-05
-7.614174221247815e-05
-7.614174221247815e-05
-7.614174221247815e-05
-7.614174221247815e-05
-7.614174221247815e-05
-7.614174221247815e-05
-7.614174221247815e-05
-7.614174221247815e-05
-7.614174221247815e-05
-7.614174221247815e-05
-7.614174221247815e-05
-7.614174221247815e-05
-7.614174221247815e-05
-7.614174221247815e-05
-7.614174221247815e-05
-7.614174221247815e-05
-7.614174221247815e-05
-7.614174221247815e-05
-7.614174221247815e-05
-7.614174221247815e-05
-7.614174221247815e-05
-7.614174221247815e-05
-7.614174221247815e-05
-7.614174221247815e-05
-7.614174221247815e-05
-7.614174221247815e-05
-7.614174221247815e-05
-7.614174221247815e-05
-7.614174221247815e-05
-7.614174221247815e-05
-7.614174221247815e-05
0.0021000138311523643
0.0010514037780597677
0.0010514037780597677
0.0010514037780597677
0.0010514037780597677
0.0010514037780597677
0.0010514037780597677
0.0010514037780597677
0.0010514037780597677
0.0010514037780597677
0.0010514037780597677
0.0010514037780597677
0.0010514037780597677
0.0010514037780597677
0.0010514037780597677
0.0010514037780597677
0.0010514037780597677
0.0010514037780597677
0.0010514037780597677
0.0010514037780597677
0.0010514037780597677
0.0010514037780597677
0.0010514037780597677
0.0010514037780597677
0.0010514037780597677
0.0010514037780597677
0.0010514037780597677
0.0010514037780597677
0.0010514037780597677
0.0010514037780597677
0.0010514037780597677
0.0010514037780597677
0.0010514037780597677
0.0010514037780597677
0.0010514037780597677
0.0010514037780597677
0.0010514037780597677
0.0010514037780597677
0.0010514037780597677
0.0010514037780597677
0.0010514037780597677
0.0010514037780597677
0.0010514037780597677
0.0010514037780597677
0.0010514037780597677
0.0010514037780597677
0.0010514037780597677
0.0010514037780597677
0.0010514037780597677
0.0010514037780597677
0.0010514037780597677
